      0.0287390391
     -0.0112896146
      0.1285347715
      0.2192283781
      0.2819618357
     -0.1969127897
      0.0194861797
      0.4133478575
     -0.3149043459
      0.1548713688
     -0.1923900946
      0.0324884975
      0.0750212964
      0.0996196352
     -0.5139810944
     -0.8146528609
     -0.1956887688
     -0.0730869334
     -0.3623056170
      0.1213945584
      0.5575804175
      0.0808545348
      0.3228767159
     -0.4880974895
     -0.2603680637
     -0.0628084131
     -0.1533771958
     -0.1463927982
      0.0631745716
     -0.1861847797
     -0.1083053589
      0.3601416773
      0.1772258961
      0.1551864353
     -0.1524590749
      0.2041111889
     -0.0428736262
     -0.2436488671
     -0.3933564865
      0.4019945463
      0.2220164099
      0.1152079937
      0.1759335948
      0.1362804046
     -0.1493084659
      0.0130387272
     -0.3497995875
      0.1282390380
     -0.1041512758
      0.3314678597
     -0.1159410170
      0.4138483204
     -0.3456726723
      0.0780932004
     -0.2577208905
     -0.1887601831
     -0.1877323100
     -0.1917421115
     -0.2826257277
      0.1519036732
      0.0214418335
      0.0129950541
      0.0201784607
     -0.2807068135
     -0.6890897709
     -0.1892975952
     -0.0014020398
     -0.1316675579
     -0.3038972138
      0.3578006502
      0.5468703595
     -0.0764911861
      0.0555477878
     -0.4085754237
      0.0292447805
      0.2445766954
      0.2651876171
     -0.4613563393
      0.3172621275
     -0.2452728851
     -0.0507513241
     -0.2670115879
      0.4565571709
     -0.0032513445
     -0.1547813967
      0.3692155666
     -0.0267870081
     -0.1644292784
     -0.0297738990
      0.5213864956
     -0.0174905704
      0.4250320468
      0.0780603821
      0.1530198029
      0.2296021420
     -0.1512985291
     -0.2085024420
     -0.1077648465
     -0.2765277606
      0.2890579747
     -0.1864772701
      0.3313267716
      0.2203647497
      0.3750309374
     -0.2517104367
      0.2140300888
     -0.1765467675
      0.0271227940
     -0.0132562404
      0.4241833454
     -0.5375700504
     -0.1271257132
     -0.4256412323
     -0.1382300830
     -0.0562483466
     -0.3871330492
     -0.1676165827
     -0.3115398247
      0.2902951894
      0.0431554654
     -0.0422634688
     -0.2287030555
     -0.1116581007
     -0.0558561723
     -0.0874029376
     -0.0244961899
      0.1342481050
      0.2506164153
      0.0227986398
      0.1360951700
      0.0883804422
     -0.4375779667
     -0.2345369046
      0.2895072424
     -0.5713358259
     -0.2278322642
     -0.7349054636
     -0.1718973998
      0.0907069127
     -0.4192538154
      0.3258314527
     -0.1751838909
      0.1808374596
      0.2484758731
     -0.0953449964
      0.0956565705
     -0.7534439306
     -0.5948457853
      0.5560997470
     -0.2044833330
     -0.2238684213
      0.0991013089
      0.0831625676
     -0.6660838651
      0.4322806129
     -0.5557244191
     -0.5426925431
     -0.5156456446
     -0.1493034509
      0.0593624760
     -0.3466769926
      0.2034050684
      0.0228053954
     -0.0585647380
      0.0957343558
     -0.1976529975
     -0.3628850402
      0.0310872597
      0.4124692194
     -0.3813584980
      0.1739285643
      0.2496454862
     -0.1930073289
     -0.3230648937
     -0.1923180447
     -0.3559126326
     -0.6361339130
     -0.1745954312
     -0.5529764537
      0.3295098625
      0.1298160190
      0.6823412889
      1.1485733095
     -0.8395519934
      0.0068902515
      0.2331660054
      0.8251496627
     -0.1975666379
     -0.5070992465
     -0.1495271741
      0.2782414874
      0.2612345858
     -0.0727194505
     -0.1393164972
     -0.4665377439
      0.2677006457
      0.4596271894
      0.0781665055
     -0.7290969541
      0.7455065127
      0.2062939241
      0.4000855952
      0.1857125703
     -0.6984888498
      0.5134324876
     -0.2700816844
      0.6258008659
     -0.2224682996
      0.0118260906
      0.0220932270
     -0.0555463225
      0.6327698926
     -0.0962663281
     -0.0937471291
     -0.4308714375
      0.2227826802
     -0.1369735529
      1.0810132454
      0.0125953473
      0.2295233967
      0.4191167661
      0.4616308795
     -0.0332288320
     -0.4639899751
      0.2236896772
     -0.0738013587
      0.0291508446
      0.0767815879
      0.2393558839
      0.3748679490
      1.0689632616
     -0.0386179551
      0.2731854213
     -0.1223474472
     -0.0436555576
      0.1198382519
      0.4248504731
      0.0053646735
      0.1085315495
     -0.2445323090
     -0.7744227282
     -0.1503630640
     -0.2566771728
      0.1093831259
     -0.0164433377
      0.5635567195
     -0.4686804882
      0.0731036702
      0.5273554254
      1.2008990952
      0.2339326044
      0.6961756562
      0.3850855725
      0.2236947077
     -0.2178370973
      0.5400773862
     -1.4273451303
     -0.7457347964
      0.9275535317
     -0.3990650099
     -1.3295192913
     -1.0391046288
      0.2591151048
      0.0308443037
      0.0338062487
     -0.0041515599
     -0.3489225640
     -0.2673837613
     -0.0949580119
      0.0155944549
     -0.4660203311
     -0.5364871831
     -0.6402522039
      0.4504099101
     -0.7015123338
     -0.3150028876
     -0.1698813822
     -0.4453840318
      0.2221580862
      1.0228916212
     -0.5811896970
      0.7876839133
      1.3815599566
     -0.7210042932
      0.1382783856
      1.0728988311
      0.5930814915
     -1.0453659988
      0.7186342480
     -0.6306409879
     -0.2343311023
     -0.6234827607
     -0.1629908954
     -0.5643736082
     -0.5279416874
      0.6697559176
      0.1865643524
      1.2107347517
     -0.5807170218
      0.7877746953
      0.1251579202
     -0.3840061786
      0.5454296684
     -0.7264775382
     -0.1030944673
     -0.8177800688
      0.8679892192
     -0.0233250116
      0.3783992555
     -0.2322460518
      0.1305433670
     -0.1980818733
      0.7230297802
     -0.1560982081
      0.0675950246
      1.2065066540
     -0.6779564453
      0.0540088069
      0.1344661092
      0.0497125857
     -0.4625566313
      0.3796327176
     -0.1095252781
     -0.0154891310
     -0.4793417040
     -0.3141421555
     -0.0704758264
      0.4025177571
      0.4251703255
      0.0552805211
      0.0623937857
      0.1637512462
      0.5037258590
     -0.2346714476
     -0.0789302462
      0.6216651626
      0.3874261816
     -0.0224037372
     -0.3904492196
     -0.0022422544
      0.3895519626
      0.2162806832
     -0.1781030350
     -0.2346358611
      0.2140336387
      0.3043085397
      0.1857107821
      0.2361872779
      0.4402007063
      0.6874431332
     -0.2724306046
      0.0970135099
      0.0358054454
     -0.8223568682
     -0.2240748044
     -0.1766600566
     -0.9611382191
     -0.6800667356
      0.1511939647
     -0.4774614161
     -0.1290525989
     -0.0924246936
      0.0736037342
      0.0671050282
     -0.0611191879
     -0.2469273953
      0.1070775809
     -0.5185004162
      0.3369284084
      0.0894870365
     -0.0354877090
     -0.8465949872
      0.5930060341
      0.3368537715
     -0.7255104986
     -0.3862434918
      0.5330224656
     -0.3233586925
      0.7274577863
     -0.2996446635
     -0.3227913995
      0.2465509174
      0.0781405152
     -0.2902671902
      0.1313937704
     -0.0197967978
     -0.1778984808
      0.0102175911
     -0.1738489464
     -0.1222256620
      0.2443745689
      0.0291989033
     -0.5209434185
     -0.3119855072
      0.0752675297
     -0.0263547183
      0.0858897827
      0.0020832202
     -0.0683220746
      0.2881804155
     -0.6491687980
      0.1291632222
      0.6463038794
      0.4295502090
      0.1263845401
      0.1356743930
     -0.2455403472
      0.2195740382
      0.2955742987
      0.1683857423
      0.3915425488
      0.1494885409
      0.2288938699
     -0.1270331159
     -0.0590960192
      0.3974883104
     -0.0283760998
     -0.6524234134
     -0.3161547248
     -0.3020675815
      0.4019052955
      0.2562731695
      0.2752296728
      0.2665729070
      0.4222483216
      0.1311183546
      0.3610517793
      0.3831351693
      0.2088165518
     -0.4302894203
      0.2838626149
      0.6664192291
      0.0305592176
     -0.1190006091
      0.1537354302
     -0.2923802897
      0.0871610689
      0.1898007954
      0.1035927976
      0.4227784291
     -0.1847842909
      0.1218381530
     -0.4696650490
     -0.1108633996
      0.1850782354
     -0.5720933369
      0.0078614691
      0.1205685100
      0.6623811744
     -0.0614851086
     -0.1304195350
     -0.2386039140
     -0.5943365040
     -0.0185277593
     -0.1127299490
     -0.4967221547
      0.0452659273
      0.2621810596
     -0.1723501911
      0.0566742830
      0.1967093627
     -0.4057048164
     -0.0496387022
      0.0478523133
      0.0167926869
      0.3273234578
      0.2924893308
     -0.1957751724
      0.1767060334
     -0.1312655036
      0.4299184144
      0.3385666421
      0.0432522654
      0.2416670938
      0.1359432447
      0.3407432135
      0.2364585291
     -0.6309499336
     -0.1729560417
     -0.1586923509
     -0.2108399253
     -0.4161781691
     -0.0425109036
     -0.3036407036
     -0.1869755135
      0.0993691265
     -0.3857203795
     -0.1961306257
     -0.1576889668
      0.1561606383
      1.0207314483
     -0.1280589816
      0.4396231294
      0.1953064276
      0.1715723704
     -0.0691505614
     -0.9552503273
     -0.6111253639
      0.4149051955
     -0.1454460985
      0.3241683529
      0.0598624081
      0.0781508436
     -0.4364448007
      0.3296817028
      0.0360164496
     -0.4790829022
     -0.2896553822
     -0.0006359368
     -0.1641757745
     -0.2223009095
      0.0865130850
     -0.2295845848
      0.2473071800
      0.1869564104
     -0.0104615343
     -0.3112435301
      0.0430119944
     -0.0889374206
      0.2605163555
     -0.3330510758
     -0.4090600047
      0.4691874304
     -0.1220083087
     -0.8228643669
     -0.1137198827
      0.2422842629
      0.2670639130
      1.2600899386
     -0.8339371229
     -0.2408715586
     -0.1376156305
     -0.3210564361
     -0.3064561170
     -0.1572166214
     -0.0653001707
     -0.5439243896
      0.5159484629
     -0.2158760195
     -0.1149160657
      0.2073940054
     -0.0281237943
     -0.3106678390
     -0.1938901681
     -0.0709524613
     -0.2053115577
     -0.3379068100
      0.3485300274
     -0.2424827234
     -0.1481283892
      0.2853796318
      0.0895497816
      0.2541763681
      0.0451057241
     -0.0458981688
     -0.0798038991
     -0.4087518144
     -0.0851526164
      0.3989634995
     -0.1255283466
     -0.0389880768
      0.0105977062
      0.2743048299
     -0.2140783750
     -0.1235224252
      0.3948293467
      0.2463787238
     -0.0175451250
      0.2091226314
     -0.0094630392
     -0.0382961801
      0.0125361420
      0.1044413429
      0.2240402666
      0.2610034149
      0.1842597241
     -0.0672110426
      0.5965507398
      0.3703984378
     -0.3661999769
      0.5382465289
      0.5575164414
      0.1484764329
      0.2428106850
     -0.0872956547
      0.0299082593
      0.6015806166
     -0.1753711949
      0.1343556153
     -0.2226465588
      0.0557966863
      0.3268168071
     -0.2376431013
      0.2163254998
      0.0006761074
     -0.3329847017
      0.5806704650
      0.5306731071
      0.3899269100
      0.0466366877
      0.2831971073
     -0.0871279002
     -0.3913524147
     -0.6604782005
     -0.1631437780
     -0.1448989350
     -0.3937158082
     -0.0960711534
      0.0704148331
      0.3302329548
      0.3168438840
     -0.2079246680
     -0.3138971710
      0.0309093825
      0.2173324090
      0.2689655238
      0.0420342649
      0.3265676392
      0.1597113116
      0.0051019708
      0.2022758724
      0.0080806982
      0.1760683872
      0.6267938309
     -0.2305663733
     -0.3270427854
      0.1874897985
      0.5339291788
      0.7070042675
     -0.2984780693
      0.0039750214
      0.4457694874
      0.2727863460
      0.1133883241
     -0.1712607292
      0.2144107874
      0.4395065137
     -0.0963332927
     -0.5340465562
      0.2488573450
      0.1417880400
     -0.0989383651
      0.0386656553
      0.4212754445
      0.5032806500
      0.0701326936
      0.3616285456
     -0.4163828712
     -0.7606268464
      0.3226575239
      0.5954286230
     -0.0132067136
      0.2053340785
      0.4262695668
     -0.0290516447
      0.2013276962
      0.2708671717
      0.4822014273
     -0.5724401818
      0.1426031417
     -0.1961078413
      0.3630957175
     -0.0424445983
      0.4377575786
     -0.2245894994
      0.1609902916
      0.2779818498
      0.1438556257
      0.0828945118
      0.4899036567
      0.1479065675
      0.2173953101
     -0.0485836405
     -0.4498825098
      0.6269848677
      0.2286307002
     -0.2654842353
     -0.1922749621
     -0.7736065444
     -0.0675514926
     -0.2335744068
     -0.1356457162
      0.0452119827
      0.4486654997
      0.1592267535
     -0.0297219811
      0.0177857053
      0.5816383870
      0.1166303790
      0.3860580459
      0.2051413048
     -0.3710351745
      0.3694132552
      0.6833743431
     -0.3655595592
      0.5372779636
      0.4254864160
      0.3644835177
     -0.1199744385
      0.0502077714
      0.3667300391
      0.4627696732
     -1.0057089727
     -0.6639693877
     -0.0618461594
     -0.2491221607
      0.1842198974
     -0.4440906885
     -0.0580550838
      0.4965390693
     -0.2368132949
     -0.2862739269
      0.3748208556
     -0.2157680498
      0.4706938143
      0.7966961138
     -0.3443180562
      1.3389875919
      0.2907835482
      0.2048913268
     -0.0784820230
      0.3038552243
     -0.4981316118
     -1.0464230413
     -0.4676089191
      0.5702017205
     -0.1291265242
     -1.1602463627
      0.2355486486
     -0.0321940861
      0.4221493883
      0.8222394411
      0.0597451712
      0.4738846211
      0.0304958561
      0.0896203054
     -0.0710095700
     -0.0905486256
     -0.1378232869
     -0.5495488756
      0.2731626019
      0.1687437902
      0.5781937457
      0.1905214987
      0.2853667611
     -1.0250607523
     -0.2507778063
      0.0694500148
     -0.2411062915
      0.2411906640
     -0.2432789459
     -0.5964419797
      0.7139452460
     -0.1129367028
     -0.3624312256
      0.7515498034
     -0.1845621530
      0.1553699406
      0.2694823508
      0.0933841746
     -0.1448993355
      0.6419522830
      0.4172034776
      0.2806784671
      0.0935278400
      0.1407404013
     -0.1854352508
     -0.2062876489
      0.0176717720
      0.0689220741
      0.0912302344
      0.2613254667
      0.1206979000
      0.2610516523
      0.0918845559
      0.2204692254
      0.1717059582
     -0.2091129297
      0.6438463355
      0.7248446276
     -0.6974086996
      0.1139354475
     -0.0077268350
      0.1145274540
     -0.0600512577
     -0.0198992387
     -0.1337058975
     -0.6933728908
     -0.0350539573
      0.3826589013
     -0.1169252438
     -0.3312441735
      0.2239961494
      0.0544079038
     -0.0561594594
      0.2755575101
     -0.0647074570
      0.1769143454
     -0.1280232212
     -0.0015758371
      0.3163214300
     -0.5137295319
      0.4651848819
      0.0435358205
      0.1794446484
     -0.4930715283
      0.1058759459
      0.1408818149
     -0.1908890267
     -0.0017759486
     -0.0759343116
     -0.0784718392
      0.4122023075
     -0.1614469864
      0.0733753373
     -0.5410398160
     -0.2092992375
      0.1935318659
     -0.1355614817
      0.0960936499
      0.4071074683
     -0.5334638174
     -0.1062084273
     -0.1357624950
     -0.2142758492
      0.1200474982
      0.1723025990
     -0.1329081827
      0.1573101808
      0.0078261066
     -0.4131454809
      0.2740627568
      0.3148027794
      0.3035151838
     -0.0164454535
     -0.1304645523
     -0.1505094289
     -0.0787050363
      0.1747974710
     -0.1974471394
     -0.5802349518
      0.2577794485
      0.0136244834
     -0.3098633396
     -0.0766223026
     -0.0083635006
      0.2532862739
     -0.0644892427
      0.2683945951
     -0.2423853641
      0.0008406559
     -0.0237164707
      0.3690942313
     -0.0319167170
     -0.1387437653
      0.1170934524
      0.3539277914
     -0.0081472472
     -0.2083070383
     -0.0815899300
     -0.2442165960
     -0.1395329272
      0.3411108027
      0.5277773159
      0.3887621356
      0.7619323069
     -0.0488169921
      0.0874436434
     -0.3377628120
     -0.0469516438
     -0.1323026892
     -0.0662690697
      0.3814840431
      0.5859100357
      0.0225229876
     -0.1990331505
     -0.9497875206
      0.3371378609
     -0.5329551303
      0.4543576194
     -0.1123150736
      0.1558755934
     -0.9879077932
     -0.6177917623
      0.4574160242
      0.5549715948
     -0.5631743747
      0.0577301125
      0.6279684915
      0.3283735767
     -1.4136805784
      0.1349984455
     -0.2468117924
     -0.3325369124
     -0.2964779391
     -0.4827525359
     -0.1634553249
     -0.6393908352
      0.3653580152
      0.1281300849
     -0.2470700895
      0.0682944123
      0.6315393921
      0.0771498735
      0.0079234417
     -0.0516946789
      0.2227131956
     -0.1600413410
     -0.0690791199
     -0.4262681318
     -0.1854765762
     -0.1564143684
     -0.3843113430
      0.1341546050
     -0.0624027800
      0.3185127330
      0.2482738296
      0.2177756835
      0.1271663511
      0.5112364822
      0.1151207154
     -0.1065480932
      0.1896187877
     -0.2299719720
     -0.5332469894
      0.1093357552
      0.5242960650
     -0.4688788091
     -0.1635542621
     -0.3870655548
     -0.5947720132
     -0.5605931977
     -0.3446868902
      0.0894423704
      0.0095459164
     -0.2914227637
     -0.7630893235
     -0.1032583327
     -0.1002881574
      0.1612695207
      0.1414769899
     -0.0917647478
      0.8806576516
      0.1095459941
      0.2621396673
      0.0394335301
     -0.1877936474
     -0.7076197871
      0.3345271825
     -0.4881396173
      0.0032400500
     -0.1253871607
     -0.4407172560
     -0.2504509836
     -0.5699862522
     -0.1362901740
      0.4322199806
      0.2276815535
     -0.2451619862
     -0.3525007261
     -0.5991736690
     -0.6287434686
     -0.1903465837
      0.0958435052
      0.3728483344
     -0.1228638392
     -0.3101810077
      0.8460440534
     -0.0062722560
      0.2321031542
     -0.1486140693
      0.0019594634
     -0.1568159962
     -0.3667220898
     -0.3317980498
     -0.4146403228
     -0.0297705495
      0.3187559135
      0.0867425838
      0.5807598778
      0.3305958268
     -0.0634569457
     -0.4723245611
      0.3640321962
     -0.0539578133
      0.2810905786
     -0.4453021465
     -0.1247336429
      0.1897045976
      0.5596382386
      0.0445569721
     -0.0761572913
     -0.2398366274
      0.1281690877
      0.3032025226
      0.0678831507
     -0.2291570126
      0.1007273164
      0.3378516849
     -0.0957702722
      0.2691737286
      0.3768586055
     -0.0465442909
     -0.6556237567
     -0.5948231290
     -0.6406719424
     -0.2163092040
     -0.9467783502
      0.0429557783
     -0.3366483576
     -0.1874057532
     -0.7173122436
      0.0396334210
      0.2488143712
     -0.0198929811
      0.0830405253
      0.0472131497
      0.5801570624
     -0.0208006515
      0.1025408621
     -0.6235602314
     -0.2305541863
     -0.8197574919
      0.5576830958
     -0.1489960402
     -0.3511258988
     -0.2972759423
      0.1426174216
     -0.9417122824
      0.0391175499
     -1.0086075227
     -0.8107021767
      0.0502772126
     -0.4795781390
     -0.4287238876
     -0.4967753540
      0.2214963773
      0.2406234655
     -0.0287768674
     -0.1958667650
     -0.1326837002
     -0.3178162766
      0.0812002421
     -0.2841160172
      0.3099324513
     -0.0602941819
      0.7619624967
     -0.1801509324
     -0.6497101250
      0.2243668313
     -0.4512685863
     -0.2310546669
      0.1713528364
     -0.4381863524
      0.3616128954
     -0.0783589803
      0.1127618075
      0.1230427732
      0.2003938918
      0.2892781644
      0.1683184372
      0.1319925061
     -0.1861723129
      0.2751371750
      0.3476708451
      0.0445095124
     -0.1691732134
      0.1501434397
     -0.2654935655
      0.1330080694
     -0.0037244702
      0.1888250818
     -0.1957061088
      0.1860774167
     -0.3291710635
      0.1037496455
     -0.0980328877
      0.5462829214
     -0.4000258861
     -0.2096921350
      0.2512240458
      0.4018708568
      0.7531247877
     -0.1945624645
      0.7005256007
     -0.1120187724
      0.2793936872
     -0.2002343693
      0.3016498027
      0.3400702978
     -0.3058683655
     -0.1191979615
      0.5167351998
     -0.3299736294
     -0.3815421464
      1.0219447337
      0.8671359346
      0.4447835571
     -0.6111506114
      0.0307139433
      0.0811948655
     -0.1057335380
      0.2542345413
      1.1273029746
      0.0440904286
      2.0760585627
      1.2304082488
      0.2404818332
      0.3620259437
     -0.1975788826
     -0.0993884120
     -0.3948905380
     -0.0435565236
      0.6876352637
      0.6380048155
     -0.6372953179
     -0.0164165043
     -0.3955307096
      0.3016186699
     -0.6822045099
     -0.3364992460
     -0.4311024220
      0.1757732729
      0.2053363663
      0.1260846866
     -0.0524930184
     -0.4954387982
     -0.1617518433
      0.4940173526
      0.5189101742
      0.3237020731
      0.4627645415
      0.0498412890
     -0.0164999427
      0.0535810243
      0.4386658728
      0.0515445581
     -0.0286328381
      0.1724223215
     -0.1360465663
     -0.0960509631
     -0.0426856261
      0.0035325621
     -0.5833172973
      0.3671038034
      0.0120364502
     -0.3005909848
      0.0356139567
      0.0326384335
      0.3963537547
     -0.0408571709
     -0.4445599472
      0.3129934910
     -0.5000049685
     -0.0290403607
      0.4335750591
      0.9178431618
     -0.0309641607
      0.0381132789
      0.4491521734
      0.5378718418
      0.9050779451
      0.6217826273
      0.0018119340
      0.1278295061
     -0.1952921326
      0.3005120187
      0.1359896756
     -0.0448244785
      0.2220397785
     -0.3426221264
      1.0168740753
     -0.3788309957
     -0.3176140388
      0.8667309669
     -0.1616677176
     -0.4147397872
      0.3924159019
     -0.6219696444
     -0.0839445407
     -0.5553486926
     -0.3564081522
     -0.0368180726
     -0.3322721381
     -0.0274479044
      0.2900453821
      0.3244081929
      0.4798779682
     -0.1187851012
     -0.1219822281
      0.0571796085
     -0.4115501343
      0.1366049019
     -0.2236099143
     -0.3627366961
      0.2954560617
      0.6333631058
      0.0531760805
     -0.7395808149
     -0.0863159478
     -0.5514957883
      0.1574687216
     -0.1688563347
     -0.2732934191
      0.0669055237
     -0.2227131308
     -0.3589931138
     -0.1573758322
     -0.1120481455
      0.0572350833
     -0.3285152678
     -0.0101995617
     -0.2629129411
     -0.3006615409
     -0.2055239044
      0.0436365251
      0.1898818910
      0.3083850901
     -0.2209951265
      0.0584501759
      0.3972694344
     -0.1636679699
     -0.2691268835
      0.0585667684
      0.0217312677
     -0.0974318346
     -0.0073933242
      0.1011561154
      0.1892166873
     -0.7736347377
      0.0867091021
      0.4030637741
     -1.0608337890
      0.4667417452
     -0.1658647940
      0.1944480099
      0.1460802817
      0.8935114035
     -0.1745269796
     -0.1993927151
     -0.0419227498
      0.1163112727
     -0.6286965159
     -0.1898162936
      0.1840904587
     -0.4872937714
     -0.3726517801
      0.4880579538
      0.4766987337
     -0.1172171823
      0.2084603075
     -0.1051840829
      0.2632570618
     -0.1785501152
     -0.0268397007
     -0.0572834359
     -0.2616475040
     -0.9043204084
     -0.5113966506
      0.1427251949
      0.2418329262
      0.0944518966
      0.6175497332
      1.0477021430
      0.1112817222
      0.2682571836
      0.2183664969
     -0.3233437405
      0.0074725936
     -0.6937199599
     -0.0005217602
     -0.1883940176
      0.4434150085
     -0.3314059761
     -0.8947112355
      0.9821808706
     -0.0523912874
     -0.6138541337
     -0.1730752881
      0.1598417566
      0.4004134673
     -0.6215203719
      0.0604445023
     -0.1595202846
      0.4920383711
     -0.1372368947
      0.1400505120
     -0.2931408212
     -0.5738098027
     -0.0230187614
      0.3631110925
      0.3388875646
     -0.3026969661
     -0.4030867741
      0.4793045106
      0.1737563837
      0.0700055454
      0.1923850531
      0.6366339876
      0.3799431023
     -0.1638191009
     -0.2549258359
     -0.5025147663
      0.6064183790
      0.1254777485
     -0.1280514366
      0.2114946895
      0.1604109360
      0.1471067468
      0.9456472369
     -0.1849380799
     -0.2397582485
     -0.4894616851
      0.1342011211
      0.2854139671
     -0.3301955284
     -0.1450512571
     -0.7455488547
      0.0823270527
     -0.1084450209
     -0.3035893457
     -0.4425699309
      0.4917735126
      0.0179824156
     -0.7454678166
      0.3636624416
     -0.3922038053
      0.0200824814
      0.0636242484
     -0.1307342607
      0.1289975630
     -1.5109088205
     -0.1353962469
      0.5080001465
      0.0965054255
      0.4047254610
     -0.7335657585
      0.1109632933
      0.6320368459
     -0.1950088236
     -0.6950171249
     -0.0114111124
     -0.3314798872
     -0.7049974856
     -0.2602469707
      0.2118572792
     -0.9300776924
      0.1796579862
      1.0398004261
     -0.2758732951
     -0.1805377131
      0.2749494654
     -0.1536404284
      0.6503395893
     -0.1769536358
      0.0859234251
      0.1405992129
      0.0357175021
     -0.1981753899
     -0.1269390236
     -0.4393896389
      0.2673907649
     -0.1804403347
     -0.2698728665
     -0.9374060600
     -0.0048675364
      0.2907499768
      0.0924878087
     -0.1807084949
      0.4197236869
     -0.3401018584
     -0.0556798662
     -0.1787813994
      0.0579366812
      0.5776801319
     -0.3410799657
     -0.5566943697
      0.4331127335
     -0.5572967412
      0.3356446792
      0.4184035550
      0.1533483842
     -0.6357122174
     -0.0691026832
     -0.1168645235
     -0.2225773210
     -0.2634995386
      0.2026315558
      0.0588910782
     -0.4579419821
     -0.2400891806
     -0.0050893532
      0.0565613135
      0.1248217991
      0.0561914165
     -0.0359828130
     -0.1151285398
      0.1680645099
      0.1064296516
     -0.0109725133
     -0.0316455900
      0.0242713500
     -0.2734963262
     -0.1443817482
     -0.0598735085
      0.1725886259
     -0.0382386360
      0.1218576409
      0.2175095821
     -0.2349710534
     -0.0644566913
      0.0202798922
     -0.7437059108
     -0.1482041653
      0.1926082481
      0.1370901884
      0.4384994893
     -0.1449006843
     -0.0126409878
      0.1116856922
      0.0088301515
      0.1562625337
     -0.1278431865
      0.1485410764
      0.4260547883
     -0.0043023939
      0.1236501993
      0.1885792882
      0.3345256587
      0.1602729577
     -0.0198706406
      0.1480744719
     -0.0616183887
      0.0363063939
      0.1938666231
      0.1976042734
     -0.0811833127
     -0.2576828035
     -0.2364002206
      0.0782780982
      0.0850327565
      0.2983858060
     -0.0189145503
      0.1959837470
      0.1616126714
     -0.1089168447
     -0.1424401717
      0.0067356598
     -0.3963595393
     -0.3556977267
     -0.0267596988
      0.0818813651
     -0.2259575803
      0.3425174975
      0.5253401033
     -0.1729747799
     -0.3500967452
     -0.3352287202
      0.1673464371
     -0.0981932046
      0.2745192974
     -0.1653370053
     -0.2455866365
     -0.0423423503
     -0.5939205459
     -0.4005300345
      0.1313205781
      0.3877145376
     -0.0381003624
      0.3271933428
      0.1721922214
      0.2781847795
      0.0803903914
      0.0398611850
      0.1088742096
      0.2366798674
      0.2529127233
      0.1134291603
      0.9129702435
      0.9679724844
      0.1914824890
     -0.0876361218
      0.4430845782
     -0.0019068460
     -0.6637293269
     -0.0947126369
      0.4609782416
      0.0438031693
     -0.2100645573
      0.5877361312
     -0.0242303828
     -0.0365771324
      0.3555252881
      0.1355204603
     -0.3479271749
      0.0617860794
      0.0856110272
      0.3126797847
      0.1185585195
      0.4069930398
      0.0593346101
     -0.0429097941
     -0.3009565410
     -0.0336217388
      0.0718768207
     -0.0978165810
      0.0465225382
      0.4810017094
     -0.1219750537
     -0.1125717491
      0.1270849673
      0.0823328782
      0.7837403032
      0.1694553172
      0.1407080258
     -0.4743416905
     -0.3574706641
     -0.2356870861
     -0.0950278869
     -0.0833361733
      0.1971854739
      0.0316644298
     -0.4549416231
      0.1112149176
     -0.2582372372
     -0.5184880264
     -0.8825728448
      0.4229513848
     -0.9077365471
     -1.0437756101
     -0.6635280538
     -0.6455067434
      0.7347873728
      0.6445547493
      0.6284918239
     -0.0871286685
     -0.0909137838
     -0.8504672059
      1.0716889926
      0.9047569013
      0.8446121358
      1.0356167626
      0.4146448903
      1.3726767861
     -0.7170965797
     -1.2549713363
      0.0438219034
     -0.5289778993
      0.3591532273
      0.4036286013
     -0.7116812515
      0.4477789320
     -0.4114659009
      0.0010847477
     -0.3014809595
     -0.3912438459
      0.3526826135
      0.0175498315
     -0.4415887956
      0.5262928656
     -0.6591023109
     -0.3265310803
      0.8098125931
      0.2631392833
      0.1682343268
     -0.7345717002
      0.6897146112
      0.2959818220
     -0.5224731185
     -0.5017860063
      0.3229166586
      0.5164338237
      0.5579573403
      0.5456293108
      0.3160327059
     -0.1554755173
     -0.2722286406
      0.4169116752
      0.0361758319
      0.5100651245
      0.1152296322
     -0.3672190843
      0.2394110760
      0.3706937891
      0.3258380148
      0.4394476508
      0.6855538702
      0.4243279522
      0.1726466875
     -0.4725746429
      1.0536160377
      0.1739197080
      0.2551094219
     -0.2005032438
     -0.2427198492
      0.0542535226
     -0.3175384468
     -0.2291124272
      0.3800735036
      0.2721850048
      0.3920926333
     -0.6874226713
     -0.4426573461
      0.5900109484
     -0.4666252947
      0.3505264570
     -0.0848624739
      0.3469272952
     -0.0542527981
     -0.5416266131
     -0.0220692659
      0.5139821630
      0.4915243237
     -0.6318219350
      0.6593107643
     -0.1848983141
     -0.8677067924
      0.5604331922
      0.0820627272
     -0.8139685113
      0.3708259846
     -1.5472910079
     -0.2679158151
      0.4200220490
     -0.6569245503
      0.8744867470
     -0.3047941058
      0.1124800226
      0.3461604295
     -0.1165583275
      0.1961173065
     -0.2478314826
      0.0721145739
     -0.6170452488
      0.2595441576
      0.1612210642
      0.1145699981
     -0.4170280954
     -0.1965738940
      0.4200940675
     -0.3298727402
      0.6928858945
     -0.3739480295
      0.0220041728
     -0.0360676271
     -0.0201724153
     -0.0691628451
      0.2408007222
     -0.0546072559
     -0.0823222783
     -0.7418536958
     -0.0291726794
     -0.7698793326
      0.8634258182
     -0.6410170883
      0.3585696847
      0.1252875855
      0.4824914126
     -0.2788400576
      0.2057632175
     -0.4177115919
     -1.2288873155
      0.3751536024
      0.5775155685
     -0.0215907718
      0.1212013952
     -0.4435035445
     -0.2724944612
      0.2599907855
      0.5063621914
      0.5699344050
     -0.1281173671
     -0.3489561370
      0.1710489238
     -0.3238797645
      0.1255360624
     -0.5867731755
     -1.0938242644
     -0.9075456177
     -0.5179972325
     -0.3255201870
     -0.3658460512
     -0.0973403662
     -0.0275152547
      0.1060330918
      0.1150320610
      0.7701586877
      0.5038152656
      0.1318054891
      0.8398301185
      0.2375439504
     -0.1180843837
     -0.1361651645
     -0.2675356298
     -0.5464273000
      0.5456399765
      0.0113325925
     -1.1504611857
     -0.5800491232
     -0.2663832906
     -0.2463159760
      0.2961713889
     -0.1194250288
     -0.5131572884
      0.2207746416
      0.1880186240
      0.2665781240
      0.0564429446
      0.0565655936
      0.3931397473
      0.1338809379
     -0.1928953268
      0.7631020589
     -0.3505103547
     -0.5508405451
     -0.0841388693
     -0.1602190343
     -0.3022190529
      0.5909037684
      0.2749054477
     -0.1277628353
     -1.3728490410
      0.9813590963
      0.4225177804
      0.3806182538
     -0.1702127051
     -0.5128178378
      0.0584893717
     -0.4709512562
      0.0050995210
     -0.2125774837
     -0.6881398256
     -0.2518184515
     -0.0766762285
     -0.3796269462
     -0.1241887589
      0.8965911107
     -0.2304984372
     -0.4765006701
      0.0934984590
      0.3207943350
     -0.1101912465
     -0.4328946130
      0.1851660097
     -0.3437441200
      0.1927599593
     -0.2961414948
     -0.3865523381
     -0.3681386392
     -0.0753077368
      0.2495270735
     -0.0209835303
      0.8698557929
     -0.2704405754
      0.2390294374
      0.0557177861
     -0.1924690246
     -0.1644506778
     -0.6926203871
     -0.4003870928
     -0.7409211386
      1.3707435351
      0.0200484191
     -0.2447384047
     -0.8063626078
      0.2754115140
     -0.5351996255
      0.0179690581
     -0.5537945527
     -0.1137301745
      0.9147620047
      0.2852225807
      0.0464954875
      0.5908305847
      0.1377410809
      0.2656575900
     -0.5831317943
      0.2604287399
     -0.4427263081
      0.2414709251
     -0.5973003390
      0.4251082777
      0.0342456454
      0.2422040192
      0.1525188282
     -0.3714473844
      0.9542589931
     -0.1400949747
     -0.2976207630
      0.0296439998
      0.2208728322
      0.4068359462
      0.3713331905
     -0.5613486272
     -0.1006661324
      0.5158824155
     -0.2013219768
     -0.0935637726
      0.3509679234
     -0.1184428978
     -0.3224569424
      0.0385090582
      0.4603350311
      0.6330964338
      0.5137149933
     -0.1238121931
      0.2435307851
     -1.2337127635
      0.1254657113
     -0.1735341643
     -0.0376845725
     -0.3082112814
     -0.4753427709
     -0.0985304296
     -0.5351588228
     -0.1052081430
      0.2518712066
     -0.4317617635
      0.7120639894
     -0.1565677957
      0.0648370796
      0.0445990727
      0.6305256799
      0.0528885450
      0.0111702496
     -0.6289089062
     -0.1298664160
     -0.5316681611
     -0.1758059799
     -0.1526484414
     -0.6628326497
     -0.4516216691
      0.1260539570
      0.3327159790
      0.0830367462
      0.4355905547
      0.5165166297
      0.4825584066
      0.4463140169
     -0.3954976762
     -0.1522740801
      0.0319586499
     -0.7098019606
      0.4225704630
      0.2918466650
      0.2368830456
     -0.6438944886
      0.2833822431
      0.3749822805
     -0.2821771734
      0.3648199588
     -0.4501430499
      0.0985758482
     -0.5054098973
      0.6354391802
     -0.4279473966
     -0.3574809603
      0.1625179052
      0.0200528900
     -0.6332361625
     -0.0208841848
      0.2570403247
      0.0224681887
     -0.1202174389
      0.3087418066
      0.1128659048
      0.6047789768
     -0.2808855186
     -0.0994354998
     -0.3720556048
      0.2118865393
     -0.1783113736
     -0.0233220772
     -0.1599558188
     -0.3122019898
      0.4999805259
      0.0489496854
      0.8258528539
     -0.7926024818
      0.7053145496
      0.3991712329
     -0.0472953263
     -0.1869639521
      0.2672794270
      0.7120748454
     -0.2192604325
     -0.1405460300
      0.6688883963
      0.2032115602
     -0.0754063014
     -0.8561875681
     -0.0380312168
     -0.0943809659
      0.4428972771
     -0.2568117915
      0.2486011591
      0.8992122233
     -0.1416416426
     -0.8947403983
      0.0780440271
     -0.6432124516
     -0.1107865576
      0.7263913011
      0.2231946706
      0.7109428974
     -0.5059453106
     -0.1876849947
     -0.2185712882
     -0.3139974919
      0.2449596296
     -0.2316475876
      0.5378200339
     -0.1752660638
     -0.0871868444
      0.8211955281
     -0.5911351030
     -0.0398420040
      0.0634633722
      0.2017395719
      0.0189943632
     -0.0456381237
     -0.0093586384
      0.6041865495
      0.8732669299
     -0.0763911610
      0.7994539924
     -0.4354925275
      0.3637286165
      0.1629981737
     -0.3612068814
      0.4253084476
      0.1529894421
     -0.4537794046
      0.0798766895
      0.2916305798
     -0.4907984084
     -0.0743718508
      0.2825548590
     -0.1979333701
     -0.2572994911
     -0.6610801497
     -0.5867907125
     -0.2526169868
      0.6092875925
      0.1853887189
     -0.1394084627
      0.1952466018
     -0.4514809574
      0.2355888634
     -0.2003630669
     -0.2461171912
      0.6107261553
     -0.3170729175
     -0.0633261255
      0.3645087537
      0.6602640342
      0.3951605473
     -0.6197876714
      0.5251792351
     -0.7268240578
     -0.2749754815
      0.4462524793
      0.0345372791
     -0.2729098362
     -0.6725521471
      0.0091237154
     -0.7802391325
     -0.2921810344
     -0.0050411925
     -0.7306363038
      0.6341334147
      0.3667035654
     -0.1040853130
     -0.9432148859
      0.2003314364
      0.6642491356
      0.1959243748
     -0.6190699492
     -0.5652246942
     -0.3375311414
      0.5166782517
     -0.3613710236
     -0.0836855584
     -0.5573102681
     -0.4387856979
     -0.0861862922
     -0.3787975842
     -0.0545652929
     -0.0235318564
     -0.3299358183
      0.4789603719
     -0.0344939538
      0.0566534112
      0.3687608929
     -0.4957921159
      0.4822612012
      0.8110109396
     -0.4211770795
      0.4783332313
     -0.0049701893
      0.1892058050
      0.7561840913
     -0.3244706731
     -0.8026205918
      0.0418264935
     -0.2599032037
      0.2618047676
     -0.0847944781
      0.1662504773
      0.3241317441
     -0.5463629367
     -0.2634832351
      0.7423158103
     -0.1958877823
      0.1344188168
     -0.5220238940
     -0.4759464248
      0.0543072887
     -0.5918183809
     -0.2153252971
      0.0051090411
     -0.5881484287
     -0.0529974291
      0.7619383215
     -0.4026407977
      0.1486766162
     -0.8918346999
     -0.0460741036
      0.1056301475
      0.3799971317
      0.7015960935
     -0.3522473575
     -0.2369872645
      0.1946935949
     -0.3921081007
      0.2984847187
     -1.0299853750
     -0.0939354969
     -0.0310261470
     -0.0380865495
      0.0500323155
      0.3045384868
     -0.3595574216
     -0.2639968085
     -0.3531783909
      0.6829448689
     -0.0778277210
      0.4322081799
      0.0715536988
      0.0245197850
     -0.6827099810
      0.6370220395
     -0.8713138724
     -0.7808585815
     -0.0509033589
      0.8943858966
      1.0541059731
     -0.5293669790
      1.1961926494
      1.0329867497
     -1.4796373913
     -1.1532723636
      1.0759221013
     -1.2046015239
     -0.6096206579
      1.4870752753
      0.3395567405
      1.0054608245
     -0.1619752853
      0.0336308866
      0.0313817152
      1.4529827019
     -0.3832699643
     -0.6496767819
     -1.8867197665
      1.9105286970
     -0.6589947797
      1.0807541804
     -1.0088028876
      0.9396014835
      0.5980075581
     -0.7916465588
      0.8636076920
      1.2928269943
      0.0249759782
      0.3158669691
     -0.1296006753
      2.1014133259
     -0.4833438578
     -1.8074786187
      1.7216866610
     -0.8182425201
      0.3397981119
     -0.5767625985
      1.3578879264
      0.1578034588
     -0.7349206979
     -0.8994730239
      0.1749483495
     -1.2020785901
     -0.6103313435
     -0.2576138433
      0.1481197638
      0.9605739324
     -0.2658293351
      0.2359423291
      2.0183190044
     -1.8596431048
     -0.7373550746
     -0.2300612183
     -0.1436451233
     -1.1910832968
     -0.2987715873
      0.2103141972
     -0.7084295257
     -0.7795396810
      0.1700822988
     -0.6392250092
     -0.0156949640
      1.6145828515
      0.2983636914
      1.5172416498
      1.5195443825
      0.6924127750
      1.5262792607
     -0.7725487747
     -0.3986151181
      1.4956531366
     -1.3507083557
      1.2994163351
      0.4159736046
      0.1287289198
     -0.3471254360
      0.5335059717
     -0.3994756633
     -1.9682375674
      1.6628807589
      1.7375228185
      1.6928471260
      0.4874711943
      0.9940167858
     -0.7581630118
      2.1297629896
      0.9300867026
      0.9423776084
      2.2935987070
      1.1972498181
     -1.4329127863
     -0.3816119160
      0.0809704343
      0.8825078782
     -0.2733368198
      2.2348470188
      0.3293027812
      0.9574715965
      1.8299867052
      2.3186541156
     -1.8194123581
     -0.1215220965
     -1.3255777299
      1.9519729127
      1.0598856442
      0.2614423741
      0.5789424311
     -1.3341959520
      0.1479688698
      0.8262255851
      1.7035549144
      1.9264670973
      1.3197919193
      1.9321943895
      0.2546377532
     -0.5332993003
      0.8754919801
     -1.5104346969
     -1.3888172532
     -1.4410704552
     -0.9718767634
      0.5805225883
     -0.5255618431
     -1.0756796118
     -2.0561095648
     -0.6943620770
      1.1916746924
      0.8132640751
      0.5875508446
     -1.2307624735
     -0.5138707404
      0.1405165886
      1.0691644142
     -1.9323904667
      0.3985348991
      1.5010761929
      1.6626169836
     -0.6010911646
      1.4385947627
     -0.8237417888
     -1.6255394563
     -1.8887559174
      1.1774091035
     -1.1257796671
     -1.6235856904
      1.1813271914
     -0.0918221230
     -0.4047303418
      1.0141914265
      1.7319416853
     -0.6439690563
     -1.4607475263
      1.3371967497
     -1.7250016791
      1.4902867379
     -0.8265549583
     -0.3920162412
     -0.9026050323
     -1.1179433744
      1.8683654713
     -0.3857207090
     -0.5413893549
      1.8898420034
      1.8148652790
     -1.3687861098
      1.5632879027
      0.7085861613
     -0.4490768801
      0.3738334084
     -1.4312522728
      0.2618481053
      2.0723531333
      1.8451358450
     -1.3337572799
     -0.8145037732
     -0.1867533927
     -0.4518215557
     -1.0220853784
      0.2465891365
     -0.3357786585
     -0.8143812590
     -0.5544526585
     -1.9608027935
      0.8011928833
     -0.5992799443
     -1.6933744082
      1.1230414726
      1.9829937042
      0.6274956229
     -0.6650107061
      0.4834941123
      1.8381612476
      1.2518325585
     -1.5120940017
      1.4111609298
      0.2325217906
      1.4924938901
      1.6885341898
     -0.8064253685
      1.3578033632
      0.3646969125
     -0.6290098516
      1.5973854955
     -0.6238765826
     -0.5630086155
      0.6961590330
     -1.5413437494
      2.0087756090
      1.6370806508
      1.0635489280
     -1.3650793770
      0.1705615792
     -1.6504769475
      0.4510492669
     -1.7166841412
      1.7109435376
      1.6637135037
      0.7703678797
      0.4491860611
      1.9836079132
     -1.3245076593
     -0.8366294817
      0.2431949443
     -1.2589087782
      0.4067874137
      0.2008509326
     -0.7366204177
      1.3702934815
     -1.4883675962
      0.5912329223
     -2.1935768265
     -0.6714841955
     -1.3778765550
      1.5222122820
      1.1811668123
      0.5830171921
      2.3363064144
     -1.7160395386
      1.7377733165
      0.8754217557
      0.4332389359
     -1.8177141331
      1.5183484537
     -1.1315162391
      0.1480832200
      1.6447838405
     -0.1167119528
     -1.8106098864
     -0.8893765152
     -1.9158529694
     -0.6897169136
      1.8229739905
     -0.9323813311
      1.4677490161
      1.7195336895
     -0.4447296389
     -1.0713100540
      0.3818515191
      1.7910060995
     -0.4738288034
      0.9674230255
     -0.1975682201
     -1.5180586711
     -0.5722594388
     -0.2774052492
     -1.7867331012
     -0.9826861194
     -0.3605369209
      1.0696401744
     -1.0200190091
      1.1631612904
     -0.1985100762
      1.6516422856
     -0.8623419370
     -0.3541877458
      0.3221924442
      1.3816877411
     -1.7292626531
      1.3735827765
      1.0138092548
      0.5080667546
      0.1473332765
     -1.1451110890
     -1.0738063238
     -1.9420629649
      1.4642482193
      1.1672741790
     -1.0362415665
     -0.1156139039
     -0.3925155092
     -2.2484770483
     -1.0184194116
      0.8493861860
      1.4473035168
     -0.6263567328
      0.1048749604
     -0.3255011306
     -0.6866329884
     -0.4747983859
     -0.6358919444
      0.8959851157
     -0.1483246604
     -1.5080764263
      1.7560710535
     -0.6130954564
     -0.4014739915
     -1.7989965663
      1.4046678687
     -1.5834433429
     -1.3556063715
     -1.5121835335
      1.7850127675
      1.1761146649
     -0.8346182625
     -1.5835901434
     -1.4889630123
      0.4576910478
      0.5500139119
      0.0665777347
      0.9868158798
      1.5815895170
     -1.5877550366
      1.8199435967
     -1.4466638244
     -0.4055326010
      1.4474059224
     -1.9680339886
     -1.7942279369
      0.0077194923
      0.0017806312
      0.0121104186
     -0.0493771271
      0.1643419933
     -0.1570607313
     -0.2288372172
      0.0766512624
      0.0177114189
      0.1687529582
      0.1219512871
     -0.4131309290
      0.0303942377
      0.0593672152
     -0.4254358898
      0.0024614159
