      0.2432097469
      0.0121821309
     -0.0031223265
     -0.0101038084
      0.1537345172
     -0.0740181567
     -0.0855850938
      0.3215992884
      0.5311031417
      0.2370474629
      0.3208359086
     -0.2597254125
      0.0051107176
     -0.3807006582
      0.0270372450
     -0.1592221558
      0.1201115906
     -0.6134512539
      0.3968572967
     -0.0540129853
      0.2771900937
      0.3965805259
      0.1524060485
     -0.2033158282
     -0.3045974114
      0.0649936669
     -0.3358992339
      0.2519647323
      0.2450479179
      0.2836353139
      0.2285460553
     -0.5921544158
     -0.1261319296
      0.0014176827
     -0.0887102859
     -0.2905148235
      0.1646451834
      0.1031111117
     -0.2374064271
      0.2026203393
      0.2191161834
      0.3128675024
     -0.0151906002
     -0.1380791497
      0.1368370670
      0.3662841295
     -0.2256126382
     -0.1191389493
      0.1537548509
      0.1849243365
      0.1600836282
     -0.0351457375
      0.0300832095
     -0.0426391826
     -0.0433008702
      0.0602821386
     -0.2791053039
     -0.1488326844
      0.2039242639
     -0.2604201393
      0.0467856511
     -0.0571234856
      0.0582535638
     -0.0910255694
     -0.0808736941
      0.1919861700
      0.2675093646
     -0.3079076506
      0.4268344256
      0.1707826093
      0.0305990851
     -0.0217866276
      0.0348224883
     -0.0699262926
      0.0531833048
      0.3665055581
     -0.1834712463
      0.1121648558
     -0.0050087442
      0.0947817677
      0.0258099357
     -0.6582947729
     -0.0128670826
     -0.0308789443
      0.2760710734
      0.0321005467
      0.0518784751
      0.0948301159
      0.4509385121
      0.0049609694
      0.5353996110
      0.1424190355
     -0.3573570619
     -0.4023876567
     -0.0946252446
     -0.1021741241
     -0.2446734975
      0.3501596732
      0.0093927073
      0.1143316037
     -0.4714542475
      0.8099750828
      0.6737911041
      0.4154324923
     -0.7586756310
     -0.2179557897
      0.0457229708
     -0.0639743974
     -0.0581915013
     -0.4793924726
     -0.1461367826
      0.1748683231
      0.2409207574
      0.5042904023
      0.1530270145
      0.2998861511
     -0.1737069958
      0.1364752923
     -0.7668331789
      0.1862427144
     -0.2973897327
      0.2346772777
      0.0514543445
     -0.3724467020
      0.3548885859
     -0.1983260732
     -0.0432301897
     -0.4482882684
     -0.1831974174
     -0.1846833191
      0.0591943036
      0.2716127447
      0.2021221168
     -0.2177669665
     -0.3398971331
      0.0753990458
      0.6591929101
      0.2824417996
     -0.3029173280
      0.6085308950
     -1.4903526021
      0.1549054738
     -0.4806051037
      0.8411675978
     -0.0381840696
     -0.4032175123
      0.5209884535
      0.2969541289
      0.7770231541
      0.0855725641
     -0.0531610908
     -0.2371282749
     -0.0230996499
     -0.3214752994
     -0.4117400973
     -0.3543992756
      0.4324415050
     -0.3283990101
      0.2267275869
     -0.4410861285
     -0.2098866472
      0.0393784641
     -0.0098879570
     -0.0882263076
      0.4931180330
      0.4127023829
     -0.2170667363
      0.0875044920
     -0.1895759509
     -0.4332421988
      0.0529531140
     -0.1154362040
     -0.0206764598
      0.5946213613
     -0.5716894613
      0.4334267061
     -0.0306042969
      0.2671768492
      0.8720600090
      0.4625021985
     -0.1195884726
      0.5708872371
     -0.5212453548
      0.1261679422
     -0.1098330548
      0.8662165758
     -1.1424715016
      0.1752148831
      0.1643941981
      0.0904364448
     -0.1587168388
     -0.5667178815
     -0.0150083880
     -0.1283026880
     -0.1716089247
      0.1603185348
      0.4825271128
      0.3748256109
     -0.2899229894
      0.9672812072
     -0.2839992149
     -0.4776452872
     -0.0240114720
     -0.0833298342
      0.4221380325
     -0.0424585711
      0.0577175763
      0.0548379933
     -0.2814504405
      0.3883202742
      0.3269765964
      0.4283172247
     -0.4399192314
      0.1038010438
      0.2887824851
     -0.3557399079
      0.4718727215
      0.1746429297
      0.5740360828
      0.0703234674
      0.0073963742
      0.1716522721
     -0.3556306944
      0.4123016198
     -0.5202144175
      0.2359885239
     -0.0510890364
     -0.3619063235
      0.3716041224
      0.4176891055
     -0.2940403197
     -0.5087775428
      0.7122401590
     -0.1723338710
      0.9205505218
      0.2508237346
     -0.1824151044
     -0.5309669377
      0.2933195787
     -0.0500176943
      0.1980888749
     -0.1377991141
      0.1192267377
     -0.2737623111
      0.5714817522
      0.3315982537
     -0.0400010082
     -0.2445411241
     -0.7653004248
      0.2091070003
     -0.2262891690
      0.4158395840
      0.3721655260
     -0.3846194609
      0.3478114113
      0.1169216188
     -0.1219532728
     -0.0941240577
      0.1083613213
      1.6643876354
     -0.2564466541
      0.2249600674
      0.1022720085
      0.1170971638
     -0.7425889818
      0.1575920813
      0.4682364470
     -0.0059679846
     -0.0745528195
      0.6416259648
      0.5742948991
      0.2924683209
     -0.1186737234
     -0.5292739565
      0.8010894324
     -0.0598980870
      0.2752802991
      0.1907815147
     -0.3262171942
     -0.4203230946
      0.4464688710
      0.3243524229
      0.8912617770
     -0.2677906835
     -0.1501589262
     -1.0378934894
     -0.4289305655
      0.2774483540
      0.4717640411
     -0.4978668843
      0.6279798350
     -0.4429636063
     -0.2349486132
      0.5516907406
     -0.4920274346
      0.8295331171
     -0.4021527029
     -0.0175402436
      0.1035650240
      0.1101031379
      0.9197210814
     -0.4596606834
      0.3299278468
     -0.2504900786
     -0.4839599299
      0.0651566165
     -0.4678658415
     -1.5316329577
     -0.1526526195
     -0.2664018867
     -0.1411389209
     -0.5332879153
     -0.3957375399
      0.2116013105
     -0.5325124766
      0.8290380568
     -0.0447689996
     -0.3823252755
     -0.5208923694
     -0.2980107522
      0.5122082806
     -0.1618530883
     -0.1201462150
     -0.8805577504
      0.2413129756
      0.8262347082
     -0.5404295043
     -0.9019020938
     -0.7405876901
      0.0681753055
     -0.1471539573
      0.1062129560
      0.4010848173
     -0.2713686221
     -1.2700755973
     -0.0064494633
      0.6346457750
     -0.2647699208
     -0.5681185507
      0.9005362880
     -0.6405601413
     -0.2782370845
      0.0331536757
      1.2508005718
     -0.6292931565
     -0.3577302104
      0.0722429275
      0.2071363202
      0.8634810648
      0.3460119118
      0.0284721316
     -0.5605215736
     -0.3453520758
     -0.4329702492
      0.3830916957
      0.4021243464
      0.0818131576
     -0.3419903866
      0.3402689957
     -0.0669567690
      0.1696726440
      0.3106484020
     -0.3363267254
     -0.6335741555
      0.0798150596
     -0.6719277541
     -0.5353697012
     -0.1868894617
      0.8756241355
     -0.3503266102
     -0.1694365203
     -0.1685170334
     -0.1175959220
      0.6508371798
     -0.3584223716
      0.1293115234
      0.1837792549
      0.2907728272
     -0.1963676624
     -0.0255541729
      0.0445426221
      0.6877180515
     -0.1556143398
      0.5769782245
     -0.3738192407
      0.5986817404
     -0.3726754940
      0.2488688343
      0.1280250088
     -0.0021731600
      0.2640113032
     -0.2273635939
      0.1452258425
     -0.5456806585
      0.2422955654
     -0.2014962250
     -0.0200399798
     -0.0074169386
     -0.4150043176
      0.0120591783
     -0.1755953863
      0.4054614195
     -0.6513208110
      0.2816902701
      0.4200786225
      0.4898089285
     -0.0555450082
     -0.2831710395
      0.0365341177
      0.0377502715
      0.2980774855
      0.2064113840
     -0.4541057779
     -0.0330765563
      0.1887057281
     -0.3255288343
     -0.1987100944
      0.2268041888
      0.1698994246
      0.2482028941
      0.3581457236
      0.0997993836
     -0.1912278232
     -0.3367672020
      0.5169242768
     -0.0762957221
      0.1990429625
     -0.2779230860
      0.1500876254
      0.2967725220
      0.3519493749
      0.3008347225
     -0.1395809110
      0.0399654386
      0.0432712259
      0.1238734943
      0.2405316987
      0.1201010148
     -0.2719125054
     -0.4160581929
     -0.2503826126
     -0.0433561918
      0.2340090068
     -0.3625777012
      0.0079474831
     -0.0114290017
     -0.2415677160
     -0.1182744472
      0.2517455295
      0.2308665285
      0.1940853736
      0.0750358826
      0.3707329066
     -0.7284415723
     -0.0296050029
      0.3507861229
      0.2896005116
     -0.2979502840
      0.3365738591
     -0.0821975217
     -0.2487711136
     -0.2542384591
     -0.1961029590
     -0.1545250621
      0.0591048652
      0.5342647610
      0.0439779923
      0.0588624141
     -0.2731525320
      0.3888465687
     -0.1775738708
      0.1089232101
     -0.2361881939
      0.0587419656
     -0.4090672710
     -0.1089392018
      0.0346879585
      0.2368567081
     -0.1463465859
     -0.2262672650
      0.0385171720
     -0.0741256679
     -0.1689840017
      0.1653040389
      0.7345255958
     -0.4348937603
     -0.6478230068
     -0.5191310267
      0.8624939461
     -0.3517987756
      0.9097486570
     -0.3345407456
      0.3345259614
      0.0642084165
     -0.0429003714
      0.3962198480
      0.1146475336
      0.6025860738
     -0.6264616258
      0.5060514695
     -0.6569470992
     -0.1346336262
      0.1170151154
     -0.1704613181
      0.7809171707
      0.4540485224
      0.3772634197
      0.0107605217
     -0.1036792879
      0.9374070264
     -0.2377235417
      0.8475803765
     -0.4472429079
     -0.3330299561
     -0.5945533926
      0.5647516963
      0.0662051613
      0.0299937766
      0.0773530637
     -0.4980836450
      0.0371795691
      0.4917857708
     -0.0408414895
     -0.9118040661
      0.0891899695
     -0.3546899481
     -0.1886183080
      0.4886425994
     -0.3283724691
     -0.4704223318
      0.1934389023
      0.2297488555
     -0.1653518950
     -0.0351763277
     -0.1546035466
     -0.1017703612
      0.6553532621
      0.0641135407
      0.5901932312
     -0.5087199835
      0.0293734896
      0.0114374400
      0.3090171798
     -0.2462539377
     -0.0125493243
      0.2810234175
     -0.4670215442
      0.2895014036
     -0.2170545916
     -0.5033420063
     -0.3836343303
      0.4049702362
      0.0319173488
      1.1835337238
      0.1398523033
      0.6150180960
      0.2662524683
      0.0226546305
     -0.0891564385
      0.8547332396
      0.0644976361
     -0.9595197683
     -0.0147275184
      0.1387830791
     -0.1776948445
      0.3748770509
     -0.1098043709
     -0.1421866891
     -0.7370136657
      0.0219829929
      0.2142966945
     -0.2607401551
      0.0942363367
     -1.3890816977
      0.6141842114
     -0.2430893151
      0.6411484901
     -0.2051727940
      0.9137080993
     -0.0455663988
      0.1525857063
     -0.3191982801
      0.2357231731
     -0.2461089119
      0.9557758120
      0.1301988681
     -0.2107165051
     -0.2904737058
     -0.1246495673
     -0.4189356676
      0.4058845399
     -0.2686808719
      0.3869922725
     -0.2592056885
     -0.0974596024
      0.0253599573
     -0.1099123202
     -0.1333965298
     -0.5532423994
      0.2797611149
      0.2077732981
     -0.1338293852
     -0.3352399819
     -0.4289133538
      0.1964774216
      0.3112072269
      0.0362863977
      0.3364606653
      0.1806042659
     -0.2261490218
     -0.6391293274
      0.1804442452
      0.1270046171
     -0.4968352479
      0.2049419399
      0.1609059218
     -0.1161599374
      0.1257241634
      0.0868346580
      0.4235107979
     -0.4704952314
      0.5389631583
      0.0096508082
      0.3683896664
     -0.4700247057
     -0.1710291251
      0.4850035156
      0.2026803576
     -0.0169506649
     -0.8190201386
      0.4451946132
      0.1535818622
      0.0755616489
     -0.4305248622
      0.1190456313
      0.1497257738
     -0.4172264053
      0.1701436908
     -0.2452319967
      0.0290183822
      0.2304420937
     -0.2911632308
      0.2124179991
     -0.1114978602
      0.3886504771
     -0.3392924478
     -0.3126436100
     -0.5676000676
      0.4687043080
      0.2376620752
      0.2930106792
      0.2927317507
      0.2361141178
      0.1170094311
     -0.9082522539
     -0.0797278704
      0.1509819750
      0.2073912939
     -0.6867173022
      0.0043250551
     -0.2360964723
     -0.4669588488
      0.1249248904
     -0.0764903522
      0.5627894005
      0.2746011869
     -0.9986339415
      0.6087823730
     -0.0089690759
     -0.2971544417
     -0.0680159706
      0.1234243139
      0.2326222564
     -0.0741523507
     -0.2632683421
      0.0794633225
      0.2645696611
     -0.8658785008
      0.5839577251
      0.0124733776
     -0.5271933644
     -0.1626079999
      0.1753561667
     -0.1389539292
     -0.4138663574
      0.2235644201
     -0.7987270645
      0.1286837075
     -0.1904408470
     -0.3848752413
     -0.1061739338
      0.6219431241
     -0.1370595676
      0.4516789945
     -0.3683991694
      0.1231477028
     -0.6993828602
      0.5956622830
      0.0516353243
     -0.3211399274
      0.1372806114
     -0.6278640468
     -0.1265054259
     -1.1306257556
     -0.1030384588
     -0.7108166893
     -0.4604414210
      0.3602543807
     -0.4348758561
      0.2915419676
     -0.1500535877
     -0.5060532432
      0.6260800475
      0.5691426172
     -0.1202823214
      0.0081506272
      0.2889160860
      0.3917847485
      0.0234078752
      0.7054000084
     -0.1814601090
     -0.1435537222
      0.4318019335
      1.4349132984
     -0.4285877387
     -0.0659201245
     -0.4741640249
     -0.0908029175
     -1.0720191987
     -0.4537623324
     -0.1206491595
     -0.1075861327
     -0.3036176979
      0.0889029544
     -1.0349836398
     -0.2276599155
      0.6237680969
      0.0836645823
      0.0785418802
      0.0936913679
      0.5097173730
     -0.0982923228
      0.3388894620
     -0.3659443662
     -0.2183177485
     -0.2236744960
      0.0576359975
     -0.0473154383
      0.4901079528
     -1.0823402441
     -0.4903397355
      0.5050124243
     -0.3484991850
      1.0965802902
     -0.2193862932
     -0.5764406183
      0.0832912350
      0.5662583660
     -0.2797192490
      0.3642783096
     -0.1125059147
     -0.5385980665
     -0.4216773939
      0.8251126504
     -0.9239124587
     -0.0399509490
      0.3065287659
     -0.0011736288
      0.4374345197
     -0.3448552976
      0.4895263860
     -0.3535594936
     -0.2898091084
     -0.9557466984
     -0.2666610146
     -0.0717150383
      0.0747218456
      0.2825218643
      0.0048110063
      0.0490375492
     -0.2860180282
      0.0848328202
      0.0537589974
      0.2576575845
     -0.1746771963
     -0.0619763144
      0.1978680312
     -0.5495175934
     -0.2012135377
     -0.1971007437
     -0.3258710091
     -0.1163331759
      0.0890465526
     -0.3635588576
      0.1013351446
     -0.4507550872
     -0.0074926183
     -0.1458728678
     -0.1169997425
     -0.0722083415
     -0.0198870707
      0.0641653958
      0.0789713745
     -0.0634788857
     -0.0467251853
     -0.2298526325
      0.1589963602
     -0.1205866286
      0.0482797400
      0.1822056344
      0.1573242645
      0.1935339056
     -0.2713443877
     -0.0890112748
      0.1267716729
     -0.2574511817
     -0.0726447580
      0.5949416414
     -0.2447280123
     -0.1847229978
     -0.3416750950
      0.0118700977
      0.0902024166
     -0.0739761598
      0.0714514828
     -0.1553168508
     -0.1428033174
      0.4735613125
     -0.2722423514
     -0.1035660951
     -0.0137412489
      0.3983580564
      0.1859027471
     -0.3170565421
      0.1900832361
      0.2466120935
      0.1019539535
     -0.2609790054
     -0.0414658015
      0.3975914954
     -0.2164378874
     -0.2486905116
     -0.2112336438
     -0.5408239684
      0.0966181300
      0.1014068509
     -0.0053531497
     -0.1208287449
      0.0375861304
      0.1596903232
      0.1397563765
     -0.2233264070
      0.1118881285
      0.0910710340
      0.0496800858
     -0.1549403456
     -0.4863504462
      0.0326034732
     -0.0291267203
     -0.2075187596
     -0.6037881480
      0.2170481552
     -0.4187592021
     -0.2487694571
     -0.0633144099
     -0.5471431423
     -0.0513896163
      0.1952913349
      0.0192041737
     -0.4820368819
     -0.0125410442
      0.0848978208
      0.0731141242
     -0.2063288522
     -0.1452784215
      0.1699758597
     -0.2689714954
      0.4725627868
     -0.1809239429
      0.1345234083
      0.0739046585
      0.8137275662
     -0.0496993800
     -0.4048176335
     -0.0450944393
      0.4929466655
      0.2748229241
      0.5648365410
      0.2590003238
      0.0058917537
     -0.6122683518
      0.0355879849
      0.2092771929
     -0.1215688070
     -0.4600654354
      0.4859241453
     -0.1800102155
     -0.3261031437
     -0.0513939162
      0.2764356514
      0.1168534848
      0.0966826489
     -0.3003987554
     -0.2462053388
      0.0630664111
     -0.3951721305
      0.0618714817
     -0.1972537873
      0.0550620975
      0.1990506603
     -0.0577652954
     -0.1530127342
      0.1968918415
     -0.1243854313
      0.1869427221
     -0.1824950861
     -0.5237183332
      0.1224552976
      0.1176547881
     -0.0118024829
      0.0081584892
     -0.1683605774
      0.1872639942
     -0.2136579823
     -0.0844088630
      0.2349339307
     -0.3518148901
     -0.1479502406
     -0.7406664066
     -0.0423067313
     -0.5904033883
     -0.3351101772
      0.2580050931
     -0.1531481241
     -0.4013006468
     -0.1560111190
      0.7724298647
      0.1575756236
     -0.2325045791
      0.3704867679
     -0.4410778289
     -0.0901225513
     -0.4729855038
      0.1323997273
     -0.0285334879
     -0.2117592713
     -0.0567350479
     -0.7532462277
      1.1084304162
     -0.4253575585
      0.3268052502
     -0.3007496850
     -0.1516284818
     -0.1769870880
     -0.5254059654
     -0.3983154593
     -0.4974799130
     -0.4287121206
      0.2177646453
     -0.9837809225
     -0.1481639780
     -0.3608956843
     -0.0184603647
     -0.4914353385
      0.6877098482
     -0.4113897053
      0.4058641861
     -0.3594613697
     -0.1282964396
      0.2037680397
      0.1954301883
     -0.5768305347
     -0.4551596112
      0.5713238164
     -0.6972348350
      0.3360283234
      0.5236509077
     -0.7622685368
      0.3168273839
     -1.2145849489
     -0.7583620219
     -0.1848402790
      0.6561023206
     -0.5243430547
     -0.4916700264
     -0.2467362231
      0.2598975468
      0.3495266149
     -0.4630527690
      0.0904475263
     -0.4510464071
     -0.2805302794
      0.3843307250
      1.4101087570
      0.3361159843
     -0.3511885406
     -0.3997883657
     -0.1721438296
      0.9315506744
     -0.2469691470
      0.3343849851
     -0.1502158615
      0.2160270008
     -0.0317435233
      0.0906459507
     -0.1728399437
     -0.2136405620
     -0.4483370394
      0.3409384838
      0.3534627435
      0.0237323847
      0.2570345919
      0.2731316638
     -0.3574189986
     -0.1705662098
     -0.1149224439
      0.0051130088
     -0.4145223349
     -0.1115195971
     -0.3105009433
     -0.1323248818
      0.3100770824
     -0.1580811356
      0.1563577087
      0.1652551591
     -0.2472585422
     -0.4476792900
     -0.3891986910
      0.4158528074
     -0.1193270902
     -0.3045891127
     -0.5447978004
      0.0988449796
      0.4583772655
     -0.0035297748
     -0.5893716530
      0.4993882895
     -0.1352671396
     -0.0783684233
      0.2366390187
      0.3463434856
      0.0590284279
     -0.1517029155
     -0.1288778081
      0.4780867611
      0.1533596425
      0.0803486859
     -0.7849603934
     -0.4517472860
     -0.2967856812
     -0.4524114060
      0.1071211565
     -0.3704698777
      0.4008886755
     -0.3965385279
     -0.4778367778
     -0.3745239623
      0.4411851008
     -0.3524899788
     -0.0371716145
     -0.4876030509
     -0.3940902296
      0.4757493959
     -0.2108060387
      0.3491379853
     -0.1336202511
     -0.3427739659
      0.2621551016
      0.8287579307
      0.1649122552
      0.2973580402
     -0.2726461628
      0.2041028509
      0.4007094866
      0.1169253557
      0.2670677295
      0.5846567087
     -0.3141027642
      0.1058925718
     -0.0737535879
     -0.0358621361
      0.0614966355
     -0.1161904648
     -0.0102001780
      0.4650577572
     -0.0729047307
     -0.2466978313
     -0.0588102067
      0.2319213282
     -0.1455584030
      0.0814683375
      0.0768960282
      0.0746841231
     -0.8550604269
      0.5880739342
     -0.3401554231
      0.4860001136
     -0.3883007949
     -0.7078259141
      0.0810168493
     -0.2855144654
      0.4984001931
      0.8169835459
      0.3258062988
      0.9952602950
      0.5494232088
      0.1287771565
     -0.0906127142
     -0.0602486374
      0.1684210372
      0.0721850657
     -0.7611306000
      0.1505603142
      0.5625098798
      0.1610298814
      0.0240336941
      0.3599563534
      0.1226553647
     -0.4498989250
     -0.3650848997
     -0.3208738514
     -0.1983524898
      0.7499628342
     -0.2146301511
     -0.0012400397
      0.7756875746
      0.2589636648
     -0.2059457687
     -0.0268593211
     -0.3008059900
     -0.4589202972
      0.1196142482
      0.3102973839
      0.1964293019
     -0.3167595763
     -0.4390993481
      0.6284254506
     -0.2764448195
     -0.5349900907
     -0.1983217393
     -0.4707163864
     -0.2742502856
      0.1163666400
      0.1173032968
      0.0343007775
     -0.0291467482
      0.1349196537
     -0.5000180681
      0.1304384492
     -0.2408627986
     -0.4297859597
      0.4054417797
      0.0229665727
      0.7496256538
      0.0755883272
      0.3357062841
      0.3522208558
     -0.2022675670
      0.3478865961
      0.3687098026
      0.1154197939
     -0.3090244268
      0.4907815804
      0.5381029909
     -0.7784324208
     -0.1545025909
     -0.0305270302
     -0.2287267338
     -0.6260665236
     -0.2624986475
      0.2735178670
     -0.1544063861
      0.1586535124
     -0.7587175594
      0.1211834958
      0.0156500642
      0.0845106596
      0.2605013944
      0.6564575313
     -0.1526029708
     -0.3655563524
     -0.0944096160
     -0.0398810116
     -0.0882292569
      0.6759807785
     -0.2621253061
      0.2828099967
      0.1898553474
      0.1514068224
     -0.5733479042
      0.2271363221
      0.4548157881
     -0.0010657441
     -0.5556229943
      0.1247959220
      0.3004954137
      0.2504081554
     -0.4712119863
     -1.2154473017
      0.2864596049
     -0.1775378151
     -0.1625545938
      0.0718837863
     -0.2406322393
      0.2732371902
      0.3227283934
     -0.2256648971
     -0.4394959588
     -0.0915536774
      0.7577709252
      0.0068951494
     -0.3066593209
      0.2386812092
      0.3321566025
     -0.2373750866
      0.4339087381
     -0.0393451505
      0.0059119022
     -0.4703597834
      0.1907569089
      0.3611331300
     -0.1803618326
      0.8043274215
     -0.8100049361
      0.1184145003
     -0.2431232464
     -0.1365302564
      0.2819778620
      0.1912850029
      0.2125431102
     -0.1135713935
      0.3930215733
     -0.4827738938
      0.3415043385
     -0.3199182428
      0.4579716557
      0.0259784194
      0.2622703291
     -0.3806204622
     -0.3229692299
     -0.2553434575
     -0.1810720669
      0.6972476220
      0.3017664077
     -0.2918681732
      0.0664181522
      0.1065691129
      0.7599198843
     -0.0057914840
     -0.0501826521
     -0.3995272557
     -0.3433459274
     -0.3856609355
      0.0877114111
      0.7322748694
     -0.3502188474
     -0.1702284139
     -0.2599243552
     -0.1982800756
     -0.4107608483
      0.9209442294
     -0.0344663694
      0.0853234622
     -0.0666260816
      0.1464839729
     -0.0017627265
      0.5010045806
     -0.0158344077
      0.1537996613
     -0.2387653100
     -0.1231365169
      0.0947620222
      0.4381519468
     -0.1087855414
     -0.1293863472
      0.0124480231
     -0.2796411295
      0.0087784487
     -0.5504413805
      0.9244222267
      0.6848278113
      0.2046348791
     -0.1207005001
     -0.2977655607
     -0.1552728232
      1.0343322069
     -0.0766799288
     -0.4107712672
      0.9721115779
      0.2687686926
      0.3527530524
     -0.0630549467
     -0.9024935797
     -0.5182677326
     -0.2760853527
     -0.4155051467
      0.0225251069
      0.2139269770
      0.1684402806
      0.4501267901
      0.3165401970
     -0.4230244058
     -0.1247603262
     -0.0811973049
     -0.3831005274
     -0.1549093876
     -0.6464175486
     -0.0328665662
      0.0895264458
     -0.8913012446
     -0.2073164229
     -0.2249884569
      0.3059997057
     -0.1618168152
     -0.0730245276
     -0.4671286062
      0.6014316909
     -0.5198560279
      0.4118730295
      0.3208631282
     -0.0025035164
     -0.1251621474
      1.0610186815
      0.5099805075
      0.1082224903
      0.8077436481
     -0.2937389217
      0.1063046019
     -0.5384164595
      0.7249519156
     -0.1205556326
      0.2392173380
      0.5642162703
     -0.1883636013
     -1.0091675145
     -0.2399426685
     -0.3269749846
      0.2781238099
      0.2071087491
      0.3109719514
     -0.2713966586
      0.3200876626
      0.4112117104
      0.5739467613
     -0.0711783312
     -0.6782187774
     -0.0555540922
      0.2602204886
      0.9304860529
     -0.5529162997
      0.7452332785
      0.0100386394
      0.2612447403
     -0.3377486288
      0.3508649868
     -0.4163083247
      0.0891727915
      0.1455473434
      0.0557057360
     -0.3163017768
      0.3291404430
      0.7779655247
      0.1316979565
     -0.5580766693
      0.2977959789
     -0.3323774764
     -0.0237679651
     -0.6934890910
     -0.4301143327
     -0.2698598099
     -0.1061810775
      0.2264397743
     -0.3207320979
      0.3226570677
     -0.1575387564
      0.2072048044
      0.0069153080
     -0.2847733708
      0.0330038061
     -0.0469233330
      0.1061679488
     -0.0479055466
     -0.0900253727
      0.0028244252
      0.1119935769
      0.2454919336
      0.0918071970
      0.2116676151
      0.2975988537
      0.0011314719
      0.0606242728
      0.2940339722
     -0.1309592262
      0.1767517811
     -0.0132602981
      0.0837933236
     -0.1450253358
     -0.0140274336
      0.0442257283
      0.1054197746
     -0.0541880677
     -0.1240742046
      0.0703308160
      0.1155120220
      0.0941781241
      0.1524661349
     -0.3349802464
      0.1191975766
      0.1060640597
     -0.1968305964
     -0.0448489288
     -0.0953714711
      0.0200212081
      0.0870395497
     -0.0401334196
      0.0943904377
      0.3005660920
     -0.3129165040
      0.0789829030
      0.2355818774
      0.3811590387
     -0.3019795291
     -0.0166457543
      0.0940533089
      0.0107810162
     -0.0081722737
      0.1586299628
     -0.0499661181
      0.0520961026
      0.1230584295
     -0.0692529970
     -0.4059743433
     -0.0541376499
      0.1758820078
     -0.1719504892
      0.0291943175
     -0.0697212987
     -0.1632760408
      0.0688921149
     -0.1698126662
     -0.0161612720
      0.2804051330
      0.2392424467
      0.2766826290
     -0.0570044385
     -0.2899594906
      0.1608025515
     -0.0194703071
     -0.0352411867
      0.0868099334
      0.0449567347
      0.0529212161
      0.1953504370
     -0.1044546662
     -0.1292283213
      0.1546340665
      0.2017915008
      0.1412786312
     -0.2904563947
      0.1032869704
      0.2684067380
      0.1940255566
     -0.0960813639
      0.0817782460
      0.2180617163
      0.1060154167
     -0.0530229604
      0.0718092159
     -0.1277087404
     -0.0165444438
      0.1643571358
      0.0889081869
     -0.2222245347
     -0.0103497192
      0.0237175228
     -0.7855931099
      0.1812896806
     -0.0157071458
      0.1960191006
      0.1186573598
     -0.1828994628
      0.1960218466
     -0.2624520824
      0.4954775824
      0.1731274131
      0.0447574939
      0.1418247760
     -0.0979295895
     -0.2454147995
      0.5270332645
      0.6736518871
     -0.1243835186
     -0.0130465620
      0.1497700621
      0.0342008126
     -0.1893090826
     -0.0134855829
      0.1421333743
      0.0656227813
      0.0153536929
      0.0575242174
     -0.0436098923
      0.0089449769
      0.0951736816
     -0.1755167114
      0.4574082310
      0.1200870226
     -0.0103112877
      0.0808994860
      0.1942724494
     -0.0868171755
      0.2440421395
      0.1584851275
      0.0858532420
      0.2664085739
      0.3539042241
     -0.1248344966
      0.1230449067
      0.1939456642
      0.1463286040
      0.2710479183
     -0.3164703372
      0.0814828398
      0.2283124951
      0.1351230328
      0.6582554382
     -0.2088925337
      0.6915614691
      0.0235290348
      1.0198762667
     -0.8430556242
      1.4115564714
      0.7997963815
     -0.8310314371
     -0.2141538930
     -0.6781444248
      0.4213079547
     -0.2406166940
     -0.5296482346
     -0.6857876182
     -0.7367993486
     -1.2456782623
     -1.1696587149
     -0.4470426196
     -0.1558184596
     -1.1308647635
     -0.8697347734
     -1.2700579137
     -0.1523121625
      0.0068715799
     -0.0122337854
     -0.5982702393
      0.1313847014
     -0.1652870108
     -0.4754360097
      0.1475625092
     -0.0035597506
      0.0103641082
      0.7651816716
      0.2407292108
     -0.4181964016
     -0.1102271453
     -0.4278983773
     -0.0037805630
      0.1155325254
      0.3765508709
     -0.6788837057
     -0.1557394571
     -0.1617212843
      0.1885869384
      0.1905567666
      0.0085435395
      0.1504627941
      0.3803052820
      0.2643691203
      0.1381961448
      0.0511958778
     -0.5214016761
      0.1244006665
      0.4719424249
     -0.4806750485
     -0.6577752178
      0.2224117858
     -0.1932429153
     -0.0003303268
     -0.5528262286
     -0.3313758574
     -0.1857048547
      0.1713238924
     -0.0461020655
      0.3982766277
     -0.4205627528
     -0.5389278016
     -0.0281518235
      0.5030788032
     -0.1441412783
      0.0717371383
      0.3959084808
     -0.5763339632
     -0.5879284671
     -0.2748371623
      0.2255780320
      0.2196734938
      0.1857400581
     -0.3371329704
     -0.0871173860
     -0.2663877979
     -0.1673814591
     -0.3160543081
      0.5520879530
     -0.5848585580
     -0.5268120960
      0.5548340836
      0.3019939501
     -0.0694209008
     -0.3998286695
     -0.0079368734
      0.0912163082
     -0.2488920556
      0.3756910594
     -0.3930620083
     -0.6173900459
      1.1922567669
      0.6897320951
      0.0675256272
     -0.6217308421
      0.4841361350
     -0.2573843547
      0.3057639490
     -0.5384808279
     -0.2150849649
     -0.6318380900
     -0.1538341109
      0.2982695229
     -0.4473141289
      0.0625103809
     -0.1465705635
     -0.5998846118
     -0.2774526924
     -0.5896386960
      0.5250728619
      0.0898749324
     -0.2949413543
      0.5772188494
      0.2191278453
      0.3827994301
      0.2085468103
     -0.3020362970
      0.2088811804
     -0.6682570219
     -0.1343488754
     -0.1762678779
     -0.6295256608
     -0.0930900888
     -0.0216150181
     -0.2000910908
      0.3932120908
     -0.6256796045
     -0.1276102882
     -0.0848983635
     -0.1720724182
     -0.2944546092
     -0.6620930852
     -0.2201600197
      0.7492760075
      0.2426406412
      0.1389781195
     -0.1793097846
     -0.7824465743
      0.5585793421
      0.3992683378
     -0.4570431325
      0.1124611011
     -0.1435472389
     -0.1793186190
      0.4972673034
      0.0809253984
     -0.7573869381
     -0.1025803517
      0.0707248356
     -0.7516390507
     -0.2991706609
     -0.3368403010
     -0.0888159107
     -0.3869579719
     -0.0649858744
     -0.4262219616
      0.6756966922
      0.2924331486
      0.5373164699
      0.0763020359
     -0.1054211149
      0.1533824450
      0.5606052861
      0.5531050691
      0.0997101341
     -0.0931163260
      0.7631610879
      0.6983218304
      0.2058736606
      0.0823464829
      0.1851574486
      0.4218035159
     -0.3722908627
     -0.3034421198
     -0.1198722482
     -0.2320664316
     -0.3678456319
      0.5601682176
      0.1697528252
     -0.2759960265
     -0.4119622721
     -0.1957664997
      0.7588184124
      0.2349554718
     -0.7237623969
      0.1932188822
     -0.1146598815
     -0.5447826641
     -0.4709914758
     -0.1246447462
      0.3810211164
     -0.8495216796
     -0.5535921686
     -0.1289293565
      0.3723766588
      0.0760007173
     -0.3351059771
     -0.7853032059
     -0.0674163191
      0.4278044857
      0.5546231647
     -0.7034972616
      0.2066171866
      0.3208380872
     -0.4584708429
      0.5256325505
     -0.2031056289
     -0.0331370891
     -0.2526347359
     -0.6659945160
     -0.0143723289
     -0.3200671193
      0.3644895657
     -0.0151685498
     -0.4352590495
      0.1832749751
     -0.0676409693
      0.2467047914
      0.4559546603
     -1.3631410339
      0.3184589183
     -0.2020304080
     -0.0296693725
      0.2539501780
     -0.4350305504
     -0.4463202195
     -0.1483164326
      0.5882450504
      0.1549606912
      0.0157710183
     -0.1515053664
      0.8212255722
      0.5087962516
     -0.2904356155
      0.6332398611
      0.2121874193
     -0.3432466708
     -0.1693250618
      0.1152446624
      0.5616706049
      0.2221504213
      0.2834744620
     -0.1951766535
      1.2308024461
      0.2757040329
      0.2311320293
      0.2125956903
     -0.1607747936
      0.0638801241
     -0.1879920900
      0.5129971158
     -0.3395588872
     -0.6735535430
     -0.2643533104
      0.0219252027
      0.2578760901
      0.0132773257
     -0.0442399231
     -0.3785075937
     -0.0750380484
      0.4171910300
     -0.0755904366
      0.4586037010
      0.1964372885
      0.2125514448
     -0.0365648543
     -0.0884243686
      0.4865537926
      0.0869254711
     -0.0569681601
      0.1169600689
      0.1595046830
     -0.4342623667
     -0.2251422028
      0.1228783074
      0.7124608154
     -0.3967138000
      0.3881337362
      0.3389652270
     -0.3111806327
      0.1597882768
     -0.2516243713
      0.2735059086
      0.5620811917
     -0.0641387632
      0.0819439539
      0.0715641806
     -0.2456703773
     -0.4123191333
     -0.2047677837
      0.3139758174
      0.4718594493
      0.2404164657
      0.4369773543
      0.0467340872
     -0.1790285600
      0.2117465168
      0.1245259056
      0.5458099288
      0.0582066476
      0.5092219401
      0.1321497742
     -0.5337904754
      0.8012045675
      0.2743071313
     -0.5423283046
     -0.3488987020
      0.7674522723
      0.3351549837
     -0.0951720033
     -0.4046335940
     -0.3970402550
     -0.3772923982
     -0.9578621159
      0.0289938391
     -0.6462342597
      0.5336036987
      0.7334412236
     -0.4062642340
      0.5756698390
      0.2176171833
     -0.4525034362
     -0.3162622323
      0.0115764928
      0.3090589955
      0.4937496046
     -0.4109467305
     -0.6910582851
     -0.2302013527
     -0.3394423035
      0.0212762847
      0.3976809603
     -0.0041282767
      0.1003797048
     -0.2279169772
     -0.0388802513
     -0.2740132531
     -0.5886182606
     -0.1875256457
      0.9172999895
     -0.0446987208
     -0.2957450592
     -0.8171708699
      0.6765751355
     -0.2260004889
      0.2894170771
     -0.6971934857
     -0.1168198125
      0.0924685230
     -0.7544245984
     -0.0569343911
      0.3995012948
     -0.3655130873
      0.1539127928
      0.7405731572
     -0.4068679466
     -0.5520729620
      0.6448637035
     -0.6401182351
      0.6687467852
      0.1937116777
      0.5698226490
      0.1706952621
     -0.3203728514
     -0.0120987963
      0.0228579714
     -0.1598301684
      0.2399022804
      0.1999670120
      0.4825912362
     -0.2733496404
      0.2220437349
      0.0189333420
     -0.4858907745
     -0.4040145813
      0.2615510444
     -0.3432028587
     -0.1803922080
      0.3121411864
      0.3527305761
     -0.1239358784
      0.4196148842
      0.1835082872
      0.5890138682
      0.1744170701
     -0.5288658117
      0.9893283634
      0.7737839646
     -0.6937603418
      0.1984401913
      0.4262519614
      0.2298240107
     -0.0517454804
     -0.5609860903
      0.0065937727
      0.3402698700
      0.3186937166
      0.3403759759
     -0.3343622558
      0.3604207560
      0.1093842225
     -0.0529916430
     -0.1537728763
     -0.1748858101
      0.1219413020
     -0.1886520471
      0.4722969699
      0.2786106904
     -0.4300426185
      0.7765001472
      0.0026011529
      0.4020397403
      0.2125737892
      0.3227220259
     -0.4511437721
      0.6971153364
      0.4400730597
     -0.0450741232
     -0.0785026163
      0.6622406730
      0.3141087440
     -0.3621917006
     -0.2649381618
      0.0288918606
      0.1085880081
      0.3556103543
      0.2661422801
     -0.4900917072
      0.0236593321
     -0.1031079151
     -0.3892239222
     -0.2001611314
     -0.4596315036
      0.1340147797
     -0.8898461857
     -0.4253214802
      0.3186211821
     -0.2824715871
      0.3037273859
     -0.0796953136
      0.5177298977
     -0.0316807909
     -0.0710233817
     -0.1043633559
      0.3822337696
      0.2569269297
     -0.5184135310
      0.0520951224
      0.1190618664
      0.7252674743
      0.3974962414
     -0.6150651758
      0.3537675792
      0.0770243973
     -0.3855891512
      0.3284024334
     -0.1472292532
     -0.1233340102
      0.4982129141
     -0.4158880615
     -0.4825737135
      0.3471240293
      0.1453681587
      0.6355946212
     -0.2324823292
     -0.2094833817
      0.2770328664
     -0.1603255252
     -0.4868815247
      0.0760050238
      0.5561934865
     -0.0299984216
     -0.2359563548
      0.1717544055
      0.4072151094
      0.3035853244
      0.0476346229
      0.1391629178
     -0.2135789953
      0.2407575473
      0.4826810141
      0.1787777316
      0.1705930801
      0.0646442192
      0.4915751586
     -0.5991410587
      0.7174790636
      1.0697042194
     -0.0608298779
     -0.6140452920
      0.2694440497
      0.4393281136
     -0.2091232551
     -0.5586707448
      0.8552283365
      0.2391798550
     -0.5233837048
      1.2793427134
      0.1578749008
      0.4078207870
      0.0806925965
     -0.5317325293
      0.1840563594
     -0.6444935072
      0.2052299709
      0.7190960475
      0.2231192187
     -0.2031333429
     -0.1004146266
      0.1091076841
      0.4127213762
      0.0965915295
      0.0918331498
     -0.2544830283
     -0.4655626212
     -0.0011010211
     -0.6821428327
     -0.2870070381
     -0.3054579863
      1.2530833244
     -0.6911314323
      0.3538570199
     -1.3032111592
      0.8608518121
     -0.5710930615
      0.3348359457
     -0.4540154569
      1.0790604542
     -0.9870256800
      1.6916128368
      0.1424508142
     -0.4817599672
      0.2333161730
     -1.0846825766
      1.0334422086
     -1.5178684277
      0.1386959183
      0.6678030092
      1.6201963891
      1.5185486979
      1.2657630597
     -0.8048096322
     -0.8414304781
     -0.2640329528
     -0.2950287512
      1.7295296706
     -0.2270852825
     -0.2595490001
     -0.2978533547
     -1.5140550243
     -0.3261652093
      0.5438544350
      1.8047146474
      1.2506944237
      0.9818321048
     -1.5208489214
      0.1556031941
     -1.4695317998
     -1.8297429453
     -1.8645382005
      0.4081758398
     -1.2785400972
     -1.1462559849
     -0.9322818527
     -0.9273142004
     -0.0350762385
     -1.3108527233
     -0.2268407331
     -0.6017952669
     -2.0467499572
     -1.8270196470
     -0.5117908552
     -0.2713288328
      0.8956132645
      0.5604128521
     -1.8051683320
      0.1626666701
      0.2640907403
      2.0026183411
      0.6768745143
     -1.3151077300
      0.8902814825
      1.1028699064
     -0.3412949070
      0.4641828238
      1.6408101653
     -1.4026862067
     -0.3839590392
      0.9472021420
      0.0300174780
      1.0279145994
     -0.1894096441
      1.2651246584
     -0.8580388838
      0.1861815094
     -0.0307284099
     -0.8905329857
      0.4006459527
     -1.2807563186
      1.0591669094
     -1.0098670246
      0.9777545959
     -1.0723978306
     -0.5060328490
      0.3703259313
      0.5933883619
      0.1630213324
      0.6742638566
      0.3478136245
      1.5496837082
     -0.7377183856
      0.4167719612
     -0.9938316301
     -0.4240873847
     -1.2906723195
     -0.5819773621
      0.8036935156
      1.5329686725
      0.0507506242
     -0.8169864319
     -0.6120518004
     -1.5325286992
      2.2878809603
      0.3175867282
      1.3427304551
      1.4697012080
     -0.0639471642
      0.8769852966
     -1.6092828546
     -0.2448368287
      1.6708880844
     -0.5593354031
     -0.4914178744
      1.3939438312
      0.9826118247
      0.8375522222
     -1.0527501936
     -0.8370212519
      1.6054057419
     -1.6899450163
     -0.3315400044
     -1.4812097260
      1.0210553002
     -2.1939727052
     -0.9737695519
      0.9245842456
     -0.1630612003
     -0.1011402375
      0.0862046566
      0.8775649353
     -1.8235250190
      0.8824122785
      0.1252592070
     -1.7338965613
      0.3944837234
     -1.0125324087
     -1.7478676746
      0.2209750527
     -0.3761408305
     -0.5420333796
      1.8865573933
      0.7303653890
     -1.2729738482
     -0.1853642886
      1.2956891719
     -0.8936996125
      1.6573237486
     -0.4845322916
      1.5315593411
      0.0014682742
     -0.8200605210
     -0.3980735074
     -2.1977196162
      1.5708541165
      1.7342529787
     -1.9761815439
     -1.3091141010
      0.7235591547
     -0.2678060629
     -1.5420864302
     -1.3099345557
     -1.1384517417
      2.0970576194
     -0.8902373688
     -0.7683130399
      1.4515086024
     -0.5477753325
      1.0655033461
      0.4122715394
     -1.1038385952
      1.0019573334
      0.3702968781
     -1.8646253006
     -0.7349359456
      0.2177383186
      1.1222383929
     -1.1634814849
      0.7117000877
     -1.7676282258
      0.1067905760
      1.0796935328
      1.2734752691
     -0.8893371650
     -1.6719613431
     -0.0575134158
      1.7063578237
     -1.1110444621
      1.5740346585
     -1.2196518351
     -1.8350669700
      0.5080105972
      0.6589173680
      1.1965304856
     -0.9627388450
      1.1318678580
     -1.9987090085
      1.4253412165
      1.8519322554
      1.8926108644
     -1.4168546119
     -1.8925525493
      1.5413794457
     -1.5042700213
     -1.0292277303
     -0.9793565368
      1.0855258189
      1.9281476586
      0.6936791508
      0.1427131546
     -0.4934027204
     -0.0157572849
      1.2900576478
     -0.6274215320
     -0.7356386677
     -0.0693166576
      0.7101178405
     -0.8446439289
     -0.9382546829
      1.5709876009
     -0.6779409296
      1.6301515739
      0.6736025680
      1.4890596512
      1.3669209188
      1.1909588419
      0.5684673793
     -0.2335046983
      2.0014597136
     -1.6545805938
     -0.9198636458
     -1.8673512968
     -1.4000652696
     -1.0499088312
     -0.8019199746
     -0.0779373584
      2.0846982034
      2.1990741063
      0.1593045309
     -0.6802440823
     -1.8245028039
     -0.9765353993
      1.8100519469
      0.3459200220
      1.6783488371
      0.9558764077
      1.0604926646
      1.3658012665
     -0.9042219468
      0.7804629719
     -1.1076120651
     -0.8724032327
     -0.6581807267
     -1.8201355259
     -1.2032059452
     -0.5440229459
     -0.8676093381
      1.7102080139
      1.6847374140
     -0.9377219878
     -1.2815304441
      0.7900246870
     -1.1839931867
      1.7191388751
      1.5166265190
      1.2764343108
     -1.1599286584
     -1.4363712098
     -1.5619144270
      1.1990247614
     -2.0322836117
      1.1013701275
      1.5312418836
      2.0109947448
      0.1328103487
     -1.4082209394
      1.1059404447
     -1.4697667143
     -1.8992951249
      1.8298289977
     -1.3083840151
      1.4815609309
     -2.1027304024
      0.2860848313
     -0.0824034534
      1.5747023156
      1.2481532392
     -1.4281882716
     -1.7851723766
     -0.3252895602
      0.4271392065
     -1.5494050091
      0.8063113804
     -0.8630476755
     -0.3041050781
      0.9020381483
     -2.1132397527
      1.7709927212
      1.5182693197
      1.5484544718
     -1.8252440352
     -1.7171381908
     -2.0187168795
     -0.8475929578
     -0.7676974219
      1.8223338687
     -1.8136442396
     -1.1501785043
     -0.3798745039
     -0.5470334749
      0.9463623996
      1.3823016742
      1.9537971477
     -1.6343110911
     -1.3069912139
     -1.2094569486
      1.0518759644
      1.0524819658
      0.8634457934
      0.1309797951
     -0.2368564637
      1.6282286029
      0.5636188631
     -1.5097162402
      1.7473336582
      1.7108468793
      1.4196495330
     -0.9313421478
     -1.0232266748
     -0.1905877743
     -1.2364902657
      1.3684393045
      1.3287165848
      0.4789856651
      1.9014097127
      0.0060278679
      0.0465980524
      0.0277622232
     -0.0638770484
     -0.1670761881
     -0.0524134995
      0.0842286560
      0.0106450329
     -0.0302814531
      0.0321972242
     -0.0406135715
     -0.0009858166
      0.0049140771
     -0.0153992678
     -0.1830034611
     -0.0940024543
